//Numpy array shape [32, 16]
//Min -0.352572917938
//Max 0.352487921715
//Number of zeros 0

#ifndef W4_H_
#define W4_H_

#ifndef __SYNTHESIS__
hidden2_weight_t w4[512];
#else
hidden2_weight_t w4[512] = {0.0768718794, 0.1271623373, -0.1884138882, -0.2202136070, -0.0247577503, 0.1077175736, 0.0705383867, -0.2880533636, -0.1085094959, 0.0912118182, 0.3359114528, 0.2951054573, 0.3483498991, 0.1025644168, 0.0939398333, 0.2294593900, 0.2948657870, -0.2328258753, 0.1732871085, 0.3076339960, 0.0925881937, -0.2360450327, 0.1681832820, 0.3334963918, 0.2777992189, 0.3030631542, 0.1532978415, -0.3317582011, -0.3433405161, -0.3272530138, -0.2168814242, -0.0396203995, -0.3302616179, 0.3317606151, 0.1338881254, 0.0051140669, -0.0436388552, -0.3321276009, 0.2210881412, 0.0265259743, 0.1554023325, -0.2207296193, -0.0005772634, -0.2068892717, -0.0425564349, -0.1534809321, -0.0708149299, -0.2450696528, -0.3214149475, 0.1185757816, 0.0073291198, 0.2725573480, 0.2082838267, -0.3278155625, -0.3013081849, 0.1987073570, 0.2417578846, 0.2747242749, -0.2977018952, 0.2923306823, 0.3356123567, -0.2744337022, 0.2925256193, -0.0598573089, 0.2659572661, 0.2027977258, 0.1610602140, 0.1559959203, -0.1651350558, -0.0963351429, 0.1297808439, 0.1933632195, 0.3482441008, 0.2043824792, 0.0432776734, 0.0545851141, -0.0891517401, -0.1163936183, -0.2373265624, 0.1117613018, -0.0387420766, -0.0265081264, -0.3099755049, 0.1438097656, 0.3130523860, -0.3397440612, 0.0340766869, 0.0374447852, 0.0685970187, -0.1640955955, -0.1213191226, 0.2778336108, -0.1957203448, -0.0209204517, 0.0094617568, 0.2662712038, -0.3345790505, 0.2295151204, 0.1469624341, -0.1704918146, -0.1134728268, -0.2012961209, -0.0517178215, 0.1753069758, -0.3309078813, -0.1985914707, -0.2499697506, 0.0008770056, -0.1526599973, -0.0086983945, -0.2011851668, -0.1993715167, 0.2305198312, -0.3525729179, 0.2457930595, -0.1517949402, 0.2241857350, 0.2127043605, 0.2068713307, 0.1986955106, -0.1379671544, -0.2877023816, -0.1679582596, -0.2843081355, 0.1328692138, -0.0699719414, 0.0906293988, 0.0685909688, 0.0660930499, -0.2649594843, 0.0483814888, 0.3243873715, -0.2931068540, -0.1366655380, -0.1591668874, 0.0934770405, -0.1816764474, -0.2625592053, -0.1388594061, -0.3106286526, 0.2873449624, 0.3344258070, 0.0443020798, 0.3480589092, -0.0011157095, -0.2463885248, -0.2010456026, 0.1235286891, -0.1500732899, -0.1350157410, -0.1777513772, -0.0530230999, 0.1541288197, 0.2029093206, -0.3331136107, -0.2097432017, 0.1898131073, 0.2640968859, -0.3398679793, 0.0491680801, -0.2849536240, 0.2666382194, -0.1436194181, -0.2091080844, -0.3347973228, -0.2139974236, 0.0883792266, -0.1135319471, -0.2935884297, -0.1223745346, -0.2654550970, -0.1000341773, -0.1549982429, -0.1198843122, -0.1752508432, -0.3153101504, -0.0440444313, -0.3224647343, 0.3352857530, 0.2708947062, -0.0531401895, -0.1982398033, -0.2694309652, 0.2720393240, 0.2385587245, -0.2494506985, 0.2170214355, 0.3043946326, 0.1105261445, -0.0534514412, -0.0570533723, -0.2152621001, -0.1136441529, -0.2479889542, -0.2311985642, 0.0619576015, -0.1506171077, 0.0500173569, -0.2982074916, 0.2899424732, -0.0053592240, -0.1672535688, -0.0896636397, -0.2836906314, 0.1904387325, 0.2101860940, -0.3047301471, -0.1745154113, 0.0422214903, -0.2912772894, 0.0413132012, 0.3243970871, 0.1294966042, -0.1625444591, -0.0023697489, -0.2549840808, -0.1335631460, -0.1786525100, -0.2112456262, -0.3091884553, 0.2158712447, 0.0050602220, 0.1117907465, 0.2409402877, -0.1566942483, 0.2273437381, -0.1609813124, 0.0134452321, 0.0889116079, -0.1043960676, 0.1489097029, 0.2387576550, 0.0307029784, -0.3153471053, 0.0757894889, -0.1777259111, -0.1548991650, 0.0298920106, -0.2529155612, 0.3490355015, 0.2096010745, -0.0451925546, -0.2402777076, 0.3232953250, 0.2866324484, -0.2402307093, 0.0667232573, 0.0234490670, 0.3106546104, 0.0850043893, -0.1218338907, -0.0451622903, -0.0993543565, -0.0912388414, 0.2047377229, 0.1729568541, 0.1387693435, 0.3333788216, 0.1275594383, 0.2039354146, -0.2927592993, 0.2854681611, 0.1613917798, -0.1439897567, 0.3015650809, 0.2841166258, 0.3267862797, -0.3209397793, 0.0915357172, -0.0995202810, 0.3296199143, -0.0568332039, -0.0287402142, 0.3085280359, -0.2977606654, -0.2999617457, -0.1052448004, -0.1479782611, 0.2301662117, -0.0567094795, -0.1932673305, 0.2192023546, -0.1670722812, -0.0337256193, -0.2198159546, 0.1630960852, -0.1691374183, -0.1793229580, -0.0608265363, -0.2177054435, -0.0712158084, -0.1530054063, -0.1886486262, -0.0441041999, -0.2481035590, -0.1910113990, 0.0553015023, -0.0212228019, 0.0072860862, -0.2975534797, -0.0541998371, 0.3472513556, 0.2577205598, -0.1673318446, -0.2367390245, 0.1866875440, 0.2659856975, 0.1778333932, -0.0432884879, -0.0701837093, -0.2137030512, -0.1295482516, 0.0439050011, -0.3034347594, -0.2037402838, -0.0535487719, 0.3282469809, 0.1781086326, -0.1436893046, 0.2387918681, 0.0490181446, 0.1379771233, 0.2137258798, -0.1265533268, -0.1652161330, 0.1745280921, -0.1517223269, -0.1657502204, 0.1924956143, -0.0959757864, -0.2618873417, 0.1697131544, 0.2499072254, 0.3062429130, -0.1710694134, -0.0966878831, 0.1796892732, -0.2852963805, 0.2878469527, 0.3166062832, -0.0497690886, 0.2768148482, -0.2272520065, -0.2930130661, 0.1602493823, 0.1164437309, -0.0441141240, 0.2768521905, -0.1834525317, -0.0314786620, 0.3135175407, 0.3264938891, 0.2314706594, 0.3125238419, -0.1295641065, -0.1872876734, 0.0843920782, -0.3070186377, 0.0241575539, 0.2220517099, 0.1029616594, 0.1555867344, 0.1828838587, -0.0318729505, 0.3179906905, -0.3311179578, -0.2123980969, 0.0930389017, 0.2972294986, 0.0089626219, -0.0822618902, 0.2079316676, 0.2297108173, -0.1750093848, 0.2065315098, 0.3297563791, 0.3248097599, 0.0464730151, 0.2599460185, -0.2553870082, -0.0925648957, 0.0594329797, -0.2977581322, -0.3107574880, 0.0825859830, 0.2517150342, 0.1323202550, 0.1041335687, 0.3144946694, 0.1006499976, -0.3354589939, 0.0979334265, -0.0927770138, 0.0351283103, -0.1253115386, 0.0416230708, -0.1205414012, 0.1517107487, 0.3524879217, -0.0956112742, -0.2315409929, 0.1503782272, 0.2640542984, -0.0304644555, 0.0999146998, -0.1875171810, -0.0121332649, 0.1940482706, 0.2149825245, 0.2368863821, 0.2679959834, 0.2076636553, -0.2295374274, 0.0219564661, 0.3156141639, -0.1750706583, 0.0971653014, -0.2244610786, -0.2905538678, 0.0982526839, -0.1348580271, 0.1395091265, -0.3294822872, 0.1923225075, -0.0910347402, -0.1890898049, -0.0039338027, -0.0486811884, -0.2952767909, 0.2198669016, 0.1421609223, 0.1815852821, 0.3069493771, 0.0927027315, -0.0185597949, -0.2073385417, 0.3112759590, 0.1474371850, 0.3235087395, 0.0225447398, -0.0731172860, -0.0027234696, -0.1162215769, 0.1365656853, 0.1638301015, 0.2878085077, -0.0118814642, 0.1149746776, -0.0733744651, 0.2274228483, 0.0799314454, -0.2028620690, 0.2713166773, 0.0983395353, -0.1901276410, -0.1413789988, -0.2638151646, -0.2997102141, -0.2828785479, 0.2456241250, -0.1760852635, 0.1790412962, -0.2512970269, 0.2766248882, 0.3271797597, -0.0701150820, -0.0691662356, -0.2693350613, 0.0996971130, 0.1339702457, -0.2616092861, -0.1289263070, 0.0972242653, -0.1362543553, -0.1583850235, 0.1153534055, 0.0802288055, 0.1478330046, 0.0074191876, -0.1921536326, 0.3054626584, -0.3243429661, 0.2942398787, 0.2814016640, 0.1131526530, -0.0162800550, 0.1095246077, -0.0833764225, -0.1984290630, -0.1962086856, 0.3257475197, 0.2757084668, 0.1641083062, 0.3279631734, -0.3065182865, 0.0091626858, 0.2977949977, 0.2093750089, 0.1709141284, 0.2944746017, -0.1477161646, -0.3515603542, 0.2190878689, 0.3299163878, -0.0293522924, -0.2687146664, 0.3262186944, 0.2147032022, -0.1766030341, -0.2082823515, 0.1519324630, 0.1964395791};

#endif

#endif
