//Numpy array shape [16, 24]
//Min -0.387550979853
//Max 0.385790914297
//Number of zeros 0

#ifndef W2_H_
#define W2_H_

#ifndef __SYNTHESIS__
hidden1_weight_t w2[384];
#else
hidden1_weight_t w2[384] = {-0.3552687764, 0.2040859461, -0.0377009287, 0.3785909712, -0.1645694524, 0.3451977372, -0.3092971742, -0.2295577228, 0.1663317233, 0.3857909143, -0.2494231462, 0.3023626804, 0.0016986385, -0.3802420497, -0.1072831899, -0.2466733456, 0.1106828228, -0.2416902632, -0.2808786631, 0.2431504875, 0.2961831987, -0.0426584817, -0.1585902870, -0.3299171627, -0.0076654456, -0.1152911559, -0.2271115780, 0.2882798612, -0.2675434053, -0.1994586587, 0.1501518935, -0.3084797561, 0.2481024563, -0.3601161540, -0.0598068051, -0.1176718175, -0.3504696786, 0.1398082525, 0.2284199297, -0.0808686912, 0.1954347342, -0.2283678949, 0.2691372335, 0.1105370298, 0.0319956727, -0.0653310716, -0.2990512252, -0.2919234037, 0.2458865345, 0.2349986583, 0.1682195365, 0.1050282791, 0.1640398055, -0.3499477506, 0.1394734830, -0.1696357876, 0.3826548457, -0.2526323497, -0.1104636937, 0.1824002266, -0.2051382214, 0.2172265202, -0.1794169098, 0.1966437697, 0.2230070382, 0.3563213646, 0.2141215801, 0.3560862839, -0.0328100808, -0.2935667336, -0.0275594443, -0.2338085622, 0.1438442916, 0.1120852157, 0.1623125672, 0.2012893111, 0.2099921405, -0.3025048673, -0.2221203148, -0.1569656432, 0.3796760738, 0.0481370650, -0.3558354080, -0.3157136440, -0.0090541691, 0.0049882932, -0.0166172497, 0.2584604025, 0.2755439579, -0.1781115383, 0.2767516375, 0.1753631979, -0.1028769910, 0.1806356758, 0.2172171921, -0.2224807739, -0.2199818790, -0.3518631756, 0.1608604044, 0.3575061262, 0.2544651628, -0.2175710499, 0.3719913960, 0.2569464743, -0.3674963713, -0.0370076299, -0.0590588264, -0.2899894416, -0.3814261258, 0.2016067803, 0.3088826537, -0.3571528494, -0.0063325907, 0.0335224494, 0.1260508150, 0.2583314478, -0.2647331655, -0.1675615907, -0.1036638841, -0.3118458390, -0.3752214611, 0.0157241244, 0.1816660464, 0.3086170852, -0.2551189661, 0.3483907282, 0.1512978822, -0.2024590522, 0.2614910007, -0.0229601376, 0.2025828511, 0.2022473216, -0.1587037891, 0.2061857879, 0.0280942451, 0.2261990011, 0.0638525188, -0.0612873584, 0.3246631026, -0.2239280641, -0.0399713591, 0.0929349288, 0.1475032717, -0.3721031249, -0.0432226360, -0.1967911869, -0.0336426757, -0.3183977306, 0.2859196067, 0.3348429501, -0.2823522389, -0.0617069192, 0.1144168228, -0.2749937177, -0.2609854639, 0.2128610611, -0.0277487654, -0.0720368028, -0.1643137038, 0.2432829291, 0.1478784680, -0.0335694291, 0.3030730188, -0.0454362445, -0.0733334422, -0.3478806615, 0.3382382691, -0.0790735781, -0.3683255315, 0.2614427805, -0.0702151135, 0.0179093275, -0.1174448803, -0.3232606947, -0.2733581364, -0.2440112531, 0.2709974647, 0.0451371633, 0.2922026515, -0.1733618081, 0.3816343546, 0.2120169550, 0.3104490340, -0.0532751791, -0.3478054106, -0.0670641959, 0.3730269372, 0.3166304827, 0.0137149198, 0.0225123819, -0.0649868622, 0.1116514802, -0.0310125649, -0.3707655668, 0.0320724919, 0.1883824170, 0.2769706547, -0.3556000292, 0.1730750650, 0.1102173254, -0.2177493423, -0.2471078634, 0.2585793138, -0.3091177642, 0.0685899556, 0.0880714059, -0.0190075487, -0.2066922039, -0.2068999857, 0.2265648842, -0.0187708531, 0.0273132864, 0.2086994201, 0.1395561397, 0.1122567505, -0.0211618245, 0.0043978309, -0.3334555328, 0.2011037171, 0.3383368254, 0.0371097140, -0.3476917446, 0.2535681129, -0.1311835647, -0.2188041210, 0.1903890371, 0.3446868360, -0.2227516025, 0.1910454184, -0.3205503821, 0.1081243008, 0.2129693329, -0.1531051993, -0.3875509799, -0.2480158955, -0.0884551257, -0.3667860627, -0.0038957899, -0.2083936632, 0.1284729838, 0.3270681798, 0.0634009466, 0.1865964383, 0.3580701947, 0.3167955875, -0.2990236580, 0.1077319533, 0.0885554403, -0.0574829727, -0.1189426407, -0.3649392128, -0.2214154601, 0.0647938624, -0.3585977554, 0.0138797294, -0.0941225290, 0.0744976476, -0.0992589518, 0.2130674720, 0.2093561292, -0.1979605705, 0.2156092674, -0.0089082373, 0.0236578286, 0.2379162908, -0.3083102107, -0.3307568431, 0.3750289679, -0.2080578953, 0.2117028832, -0.3177657425, 0.3527899981, -0.2377118468, 0.2910683155, 0.3388675153, 0.0102962852, -0.1536849141, 0.3703667819, 0.1192798615, 0.1330619305, -0.0809835941, -0.2655605972, -0.0492570549, -0.1273004264, 0.1798922420, -0.1849827766, 0.3444001079, -0.2091418356, 0.2565226257, -0.1064954549, -0.1940482110, 0.1091263816, 0.2479502857, -0.3103565574, -0.3051401973, -0.2141111642, -0.0873251036, -0.0423341542, 0.2274803072, -0.3043184280, 0.3405613899, -0.2271753550, 0.2175817788, -0.3712293506, -0.1129172146, -0.0203026813, -0.1893477440, 0.3482117951, -0.2250513434, 0.0416141935, -0.3570612371, 0.0314936340, -0.0699174181, 0.3406561315, 0.1775273383, -0.2193226963, -0.3394829333, 0.1815117747, 0.1581396461, -0.3033975661, -0.3448973596, -0.2183540612, -0.2014229596, 0.1395891309, -0.1015466377, -0.1747746319, -0.0819025561, 0.3189795911, 0.0928714052, 0.1335421354, 0.3301729560, 0.1195207387, 0.1745501608, -0.2320400625, -0.1432356685, -0.3232631981, 0.1790155768, -0.2909208834, 0.1407297105, -0.2581880093, 0.3465385139, 0.1500399858, 0.0596080273, -0.3284169734, -0.3042912185, 0.1961302161, 0.0105030322, -0.1735694706, -0.2234485298, 0.0017010109, 0.1275727302, -0.1927555799, -0.2857405841, 0.1711722016, 0.2796192467, -0.2036013901, -0.1220250502, 0.1032761335, -0.1042505354, -0.1196254194, -0.0801107436, 0.0335077308, 0.3522309959, 0.0776385069, 0.3650431037, -0.1936412752, 0.1802274585, 0.0855932236, 0.1251139194, 0.2068443000, 0.2716426551, -0.2428359091, 0.3835397363, -0.0049373512, -0.3835204840, 0.0043301759, -0.0805144310, -0.3678086102, 0.3748512566, -0.3099995553, 0.2335161120, 0.3533457816, -0.2365694195, -0.3708374202};

#endif

#endif
