//Numpy array shape [24, 12]
//Min -0.407701551914
//Max 0.410787284374
//Number of zeros 0

#ifndef W4_H_
#define W4_H_

#ifndef __SYNTHESIS__
hidden2_weight_t w4[288];
#else
hidden2_weight_t w4[288] = {0.0009844190, -0.3315367699, 0.3548478186, 0.4097455144, 0.3771195114, -0.4077015519, 0.2469647527, -0.1619575173, -0.3898178935, 0.0276882183, 0.2987055182, -0.3323731124, -0.0648182854, -0.3312082589, 0.1702189147, -0.3310022056, 0.1480028778, 0.2063031793, 0.0333173499, 0.0533718169, -0.1344249249, -0.1148336008, -0.3424768150, -0.2769757211, 0.1855357289, 0.2521099448, -0.1819042414, 0.2908841670, 0.0688141510, -0.0977333561, -0.2146779150, 0.0097167492, 0.2033643425, 0.1617572755, -0.1892109811, 0.3356358409, -0.1293203980, -0.3647694588, -0.3364303112, 0.2828710377, 0.1125427708, 0.0225296021, 0.0601355061, -0.0533319116, 0.0298735928, 0.0682253242, -0.0679312050, -0.3764760494, 0.2657249272, 0.0271470323, -0.0813263059, -0.4031650722, 0.0779067352, -0.2481836230, 0.2494530380, 0.0173875391, -0.2653627396, 0.2977938354, -0.3469253778, -0.1857101172, 0.3734884858, 0.3202068806, -0.2152248323, -0.0077824295, -0.3515273035, -0.0683525801, 0.1469292045, -0.3931061625, 0.2474165410, 0.3507668078, -0.3088797629, -0.0187903848, -0.2669453323, -0.2776300609, 0.3387045264, 0.0630673021, 0.0303035416, -0.1325185150, -0.2548571229, 0.3564982414, 0.1156155020, 0.2199353427, 0.3567858934, 0.3938409686, 0.0570566915, -0.0736801624, 0.0106340349, -0.2022946626, 0.3658089042, 0.2356531620, -0.2207221091, -0.0038574338, 0.2991168499, -0.3722400367, 0.3700771332, 0.1504878998, 0.2822454870, -0.0843223855, 0.2934222817, 0.1302370876, -0.3564597368, 0.3144654334, -0.3003588319, -0.1436246634, 0.2187186927, -0.4020934403, -0.1429806054, -0.1742811054, 0.0932404995, 0.2696566880, -0.4021628797, 0.0543246269, -0.0438606590, -0.1380478442, -0.3018088639, 0.1189540029, -0.3666722476, -0.0994740650, -0.0761691928, 0.0792343616, 0.3366392255, -0.3903566897, 0.0825779960, -0.2690210640, -0.1912674159, -0.2643098235, 0.1187282056, 0.3043215275, 0.1299784929, -0.0103065930, 0.2392656207, 0.4107872844, 0.2785443664, -0.1871045232, 0.3922912478, -0.2007293403, 0.2825526595, 0.3907132149, -0.2064225972, -0.2641379535, 0.0864791870, 0.3911101222, -0.2138911337, -0.0234762728, 0.3527432978, -0.0054216669, -0.3698202670, 0.0780875385, -0.1402453780, 0.3620544374, -0.0045516421, -0.1613734066, 0.0579533391, 0.1966317892, -0.3950148821, 0.0960766748, 0.0094295684, -0.0001135177, 0.0048112851, 0.3562620878, -0.3740982413, -0.2314477563, -0.0388486572, -0.2809106410, 0.0819871426, -0.0408456288, 0.1202458069, -0.1359690130, -0.2523829937, 0.3767450750, -0.0062116925, 0.0785350427, -0.0226259883, -0.3702085912, 0.3995746970, -0.1094639301, -0.2239329964, -0.1759706736, 0.2483861595, 0.1934569627, -0.3601926863, -0.2238706797, -0.0489054061, -0.2699857652, -0.1224109530, 0.3040542603, 0.0763039961, -0.3563206196, -0.1190792322, -0.1693125665, -0.2697493732, 0.3281115890, -0.3167000115, -0.1736247987, 0.1171460375, 0.0065751234, 0.2655305564, -0.1622157246, -0.3466771245, -0.2416956574, -0.0989475921, 0.1408529431, 0.0497952998, -0.1717138886, 0.3179058433, -0.0264579952, -0.0134084625, -0.2742885351, -0.1639809459, 0.3632192612, 0.0504836775, -0.1393352449, -0.0234144367, -0.0568771660, -0.3116188347, -0.0599575341, -0.1130677760, 0.2393276691, 0.3338184655, -0.2953820825, 0.1956756413, 0.0488206558, 0.3195576668, -0.3340199590, 0.2351162136, 0.3092471063, 0.0525391512, 0.1556361020, 0.2857682109, -0.3882834315, -0.3817702234, -0.2150964439, 0.1059519127, -0.1202901527, -0.3297024667, -0.0854306221, -0.1100815609, 0.0402164534, -0.2238642722, -0.3717804253, 0.0939334556, 0.3911144137, 0.1647330076, 0.2026170641, 0.3426794410, 0.3410301208, -0.1731795073, 0.0632080138, -0.0431848504, 0.1479084194, 0.0231472049, 0.3657945395, 0.1723272204, 0.2053497136, 0.1537519246, 0.0860659927, -0.2981140912, -0.3556102812, 0.0644701347, 0.3503776789, 0.2252300084, -0.3446961045, -0.2758481503, 0.3672505617, -0.1243871301, 0.0091158524, -0.3930196762, -0.3709944785, -0.3906835616, 0.0968667790, 0.2262974381, -0.0320965648, -0.2490100116, -0.3352429569, -0.0856336653, -0.2348350585, -0.2964055240, -0.2831446528, -0.3747882843, -0.1839270592, -0.2254402936, -0.2111702561, -0.2641828060, -0.2569781542, -0.0821061730, 0.1657998562, -0.0500866175, -0.3016974926};

#endif

#endif
